{"gradients/fc_layer.weight":{"bins":[-0.0009230017894878983,-0.0008638754370622337,-0.0008047490264289081,-0.0007456226740032434,-0.0006864962633699179,-0.0006273699109442532,-0.0005682435585185885,-0.000509117147885263,-0.0004499907954595983,-0.0003908644139301032,-0.00033173803240060806,-0.0002726116799749434,-0.00021348529844544828,-0.00015435891691595316,-9.523254993837327e-05,-3.610617568483576e-05,2.3020198568701744e-05,8.214657282223925e-05,0.00014127294707577676,0.00020039931405335665,0.00025952569558285177,0.0003186520771123469,0.00037777842953801155,0.00043690481106750667,0.0004960311925970018,0.0005551575450226665,0.000614283955655992,0.0006734103080816567,0.0007325366605073214,0.0007916630711406469,0.0008507894235663116,0.0009099158341996372,0.0009690423030406237,0.0010281687136739492,0.001087295007891953,0.0011464214185252786,0.0012055478291586041,0.001264674123376608,0.0013238005340099335,0.001382926944643259,0.0014420533552765846,0.0015011796494945884,0.001560306060127914,0.0016194324707612395,0.0016785587649792433,0.0017376851756125689,0.0017968115862458944,0.0018559378804638982,0.0019150642910972238,0.0019741905853152275,0.002033316995948553,0.0020924434065818787,0.0021515698172152042,0.00221069622784853,0.0022698226384818554,0.0023289488162845373,0.002388075226917863,0.0024472016375511885,0.002506328048184514,0.0025654544588178396,0.002624580869451165,0.002683707047253847,0.0027428334578871727,0.0028019598685204983,0.002861086279153824],"_type":"histogram","values":[12,42,39,25,58,94,213,269,393,729,900,1278,1850,2592,4885,25676,5829,2937,1647,1075,784,641,571,533,511,422,372,240,200,194,179,161,202,146,158,136,123,79,170,117,132,64,69,112,67,68,43,35,52,48,39,51,35,48,55,33,26,2,2,3,9,14,5,6]},"train_md":2.9841384887695312,"train_mae":0.02372615598142147,"_step":202,"val_r2":0.997374415397644,"test_mae":0.022859033197164536,"gradients/conv_layers.0.weight":{"values":[1,1,0,0,0,0,0,0,2,3,1,2,1,3,5,6,7,8,4,9,6,8,13,5,10,10,10,18,17,14,24,28,28,36,24,36,29,27,20,15,14,11,12,8,4,4,3,3,6,3,1,2,4,0,0,0,1,0,2,0,1,1,0,1],"bins":[-0.01200822088867426,-0.011669469997286797,-0.011330719105899334,-0.010991969145834446,-0.010653218254446983,-0.01031446736305952,-0.009975716471672058,-0.009636965580284595,-0.009298214688897133,-0.008959464728832245,-0.008620713837444782,-0.00828196294605732,-0.007943212054669857,-0.007604461628943682,-0.007265710737556219,-0.006926960311830044,-0.006588209420442581,-0.0062494585290551186,-0.005910708103328943,-0.005571957211941481,-0.005233206786215305,-0.004894455894827843,-0.00455570500344038,-0.004216954577714205,-0.003878203686326742,-0.003539453027769923,-0.0032007023692131042,-0.0028619514778256416,-0.0025232008192688227,-0.0021844501607120037,-0.001845699385739863,-0.0015069486107677221,-0.0011681970208883286,-0.0008294463041238487,-0.0004906955873593688,-0.00015194487059488893,0.00018680584616959095,0.0005255565629340708,0.0008643072796985507,0.0012030580546706915,0.0015418087132275105,0.0018805593717843294,0.0022193100303411484,0.002558060921728611,0.00289681158028543,0.003235562238842249,0.0035743131302297115,0.003913063555955887,0.0042518144473433495,0.004590565338730812,0.004929315764456987,0.00526806665584445,0.005606817081570625,0.005945567972958088,0.0062843188643455505,0.006623069290071726,0.0069618201814591885,0.007300571072846651,0.007639321498572826,0.007978072389960289,0.008316823281347752,0.008655574172735214,0.008994324132800102,0.009333075024187565,0.009671825915575027],"_type":"histogram"},"gradients/conv_layers.6.weight":{"_type":"histogram","values":[19,6,0,0,0,13,12,0,1,18,0,17,56,15,51,69,129,123,111,231,322,709,2784,7074,461,196,141,76,35,14,29,41,7,0,0,10,0,0,1,9,7,6,3,0,0,0,0,0,0,0,0,0,0,0,0,0,0,0,0,0,0,0,2,2],"bins":[-0.0025963212829083204,-0.00248440308496356,-0.0023724851198494434,-0.002260566921904683,-0.002148648723959923,-0.002036730758845806,-0.0019248125609010458,-0.0018128943629562855,-0.001700976281426847,-0.0015890581998974085,-0.0014771400019526482,-0.0013652219204232097,-0.0012533038388937712,-0.0011413856409490108,-0.0010294675594195724,-0.0009175494196824729,-0.0008056312799453735,-0.0006937131402082741,-0.0005817950004711747,-0.0004698769189417362,-0.0003579587792046368,-0.0002460406394675374,-0.00013412252883426845,-2.220440364908427e-05,8.971372153609991e-05,0.0002016318467212841,0.00031354997190646827,0.0004254680825397372,0.0005373862222768366,0.000649304362013936,0.0007612224435433745,0.000873140583280474,0.0009850584901869297,0.0010969765717163682,0.0012088947696611285,0.001320812851190567,0.0014327310491353273,0.0015446491306647658,0.0016565672121942043,0.0017684854101389647,0.0018804034916684031,0.0019923215731978416,0.002104239771142602,0.0022161579690873623,0.002328075934201479,0.0024399941321462393,0.0025519123300909996,0.0026638302952051163,0.0027757484931498766,0.002887666691094637,0.0029995846562087536,0.003111502854153514,0.0032234210520982742,0.003335339017212391,0.0034472572151571512,0.0035591754131019115,0.003671093378216028,0.0037830115761607885,0.003894929774105549,0.0040068477392196655,0.0041187661699950695,0.004230684135109186,0.004342602100223303,0.004454520530998707,0.0045664384961128235]},"gradients/conv_layers.4.bias":{"bins":[-0.01836063526570797,-0.017870312556624413,-0.017379989847540855,-0.016889669001102448,-0.01639934629201889,-0.015909023582935333,-0.015418700873851776,-0.014928379096090794,-0.014438056387007236,-0.01394773367792368,-0.013457411900162697,-0.01296708919107914,-0.012476766481995583,-0.0119864447042346,-0.011496121995151043,-0.01100580021739006,-0.010515477508306503,-0.010025154799222946,-0.009534833021461964,-0.009044510312378407,-0.008554188534617424,-0.008063865825533867,-0.00757354311645031,-0.00708322087302804,-0.00659289862960577,-0.0061025763861835,-0.0056122541427612305,-0.005121931433677673,-0.0046316091902554035,-0.004141286946833134,-0.0036509644705802202,-0.0031606419943273067,-0.002670319750905037,-0.002179997507482767,-0.0016896750312298536,-0.001199352671392262,-0.0007090303115546703,-0.00021870795171707869,0.00027161440812051296,0.0007619367679581046,0.0012522591277956963,0.001742581487633288,0.0022329038474708796,0.002723226323723793,0.003213548567146063,0.0037038708105683327,0.00419419351965189,0.00468451576307416,0.0051748380064964294,0.005665160249918699,0.006155482493340969,0.006645805202424526,0.007136127445846796,0.007626449689269066,0.008116772398352623,0.008607094176113605,0.009097416885197163,0.00958773959428072,0.010078061372041702,0.01056838408112526,0.011058706790208817,0.011549028567969799,0.012039351277053356,0.012529673054814339,0.013019995763897896],"_type":"histogram","values":[1,0,0,0,0,0,0,0,0,0,0,0,0,0,0,0,0,0,0,0,1,0,0,1,0,0,0,1,1,0,0,1,0,2,3,1,2,6,8,0,0,1,0,0,0,1,0,0,0,0,0,0,1,0,0,0,0,0,0,0,0,0,0,1]},"val_mae":0.022759143263101578,"gradients/conv_layers.2.bias":{"bins":[-0.02265283837914467,-0.02207183837890625,-0.02149083837866783,-0.020909838378429413,-0.020328838378190994,-0.019747840240597725,-0.019166840240359306,-0.018585840240120888,-0.01800484023988247,-0.01742384023964405,-0.016842840239405632,-0.016261840239167213,-0.015680842101573944,-0.015099841170012951,-0.014518842101097107,-0.013937842100858688,-0.01335684210062027,-0.012775842100381851,-0.012194842100143433,-0.011613843031227589,-0.01103284303098917,-0.010451843030750751,-0.009870843961834908,-0.009289843961596489,-0.00870884396135807,-0.008127843961119652,-0.0075468444265425205,-0.006965844891965389,-0.006384844891726971,-0.005803844891488552,-0.005222845356911421,-0.0046418458223342896,-0.00406084768474102,-0.0034798479173332453,-0.0028988481499254704,-0.0023178483825176954,-0.0017368486151099205,-0.0011558488477021456,-0.0005748490802943707,6.150687113404274e-06,0.0005871504545211792,0.0011681502219289541,0.001749149989336729,0.002330149756744504,0.002911149524152279,0.003492149291560054,0.004073149058967829,0.00465414859354496,0.005235148593783379,0.005816148594021797,0.0063971481285989285,0.00697814766317606,0.007559147663414478,0.008140147663652897,0.00872114673256874,0.00930214673280716,0.009883146733045578,0.010464146733283997,0.011045146733522415,0.011626145802438259,0.012207145802676678,0.012788145802915096,0.01336914487183094,0.013950144872069359,0.014531144872307777],"_type":"histogram","values":[1,0,0,0,0,0,1,0,0,1,0,0,0,0,2,0,0,0,0,1,0,1,1,1,1,2,1,0,0,0,0,4,1,3,1,4,9,11,5,4,1,2,0,0,0,0,0,0,1,0,1,0,2,0,0,0,0,1,0,0,0,0,0,1]},"_wandb":{"runtime":14858},"gradients/conv_layers.6.bias":{"_type":"histogram","values":[1,0,0,0,0,0,0,0,0,1,0,0,0,0,0,0,0,2,0,0,0,0,0,0,2,0,0,0,0,0,0,0,1,0,0,1,1,0,1,1,0,0,0,0,0,0,0,0,0,0,0,1,0,0,0,0,0,2,0,0,0,0,0,2],"bins":[-0.0171520933508873,-0.01671171747148037,-0.01627134159207344,-0.01583096571266651,-0.015390588901937008,-0.014950213022530079,-0.01450983714312315,-0.01406946126371622,-0.013629084452986717,-0.013188708573579788,-0.01274833269417286,-0.01230795681476593,-0.011867580935359001,-0.011427205055952072,-0.010986828245222569,-0.01054645236581564,-0.01010607648640871,-0.009665700607001781,-0.009225324727594852,-0.008784947916865349,-0.00834457203745842,-0.00790419615805149,-0.007463820278644562,-0.0070234439335763454,-0.006583068054169416,-0.006142692174762487,-0.005702315829694271,-0.005261939950287342,-0.004821564070880413,-0.004381187725812197,-0.003940811846405268,-0.003500435734167695,-0.0030600596219301224,-0.0026196835096925497,-0.002179307397454977,-0.001738931518048048,-0.0012985554058104753,-0.0008581793517805636,-0.00041780329775065184,2.257275627925992e-05,0.0004629488103091717,0.0009033248643390834,0.0013437009183689952,0.001784076914191246,0.0022244530264288187,0.0026648291386663914,0.0031052050180733204,0.003545581130310893,0.003985957242548466,0.004426333121955395,0.004866709467023611,0.00530708534643054,0.005747461691498756,0.006187837570905685,0.0066282134503126144,0.007068589795380831,0.00750896567478776,0.007949342019855976,0.008389717899262905,0.008830093778669834,0.009270469658076763,0.009710845537483692,0.010151222348213196,0.010591598227620125,0.011031974107027054]},"_timestamp":1.734617363615468e+09,"gradients/conv_layers.0.bias":{"values":[1,0,0,0,0,0,0,0,0,0,0,0,0,1,0,0,0,1,0,1,0,0,0,0,1,0,0,0,1,0,2,2,2,0,2,0,0,1,0,1,2,2,0,2,0,0,1,0,3,0,1,1,2,1,0,0,0,0,0,0,0,0,0,1],"bins":[-0.02334848791360855,-0.02279237098991871,-0.022236254066228867,-0.021680137142539024,-0.021124020218849182,-0.02056790329515934,-0.020011786371469498,-0.019455669447779655,-0.018899552524089813,-0.01834343560039997,-0.01778731867671013,-0.017231201753020287,-0.016675084829330444,-0.016118967905640602,-0.015562851913273335,-0.015006734989583492,-0.01445061806589365,-0.013894501142203808,-0.013338384218513966,-0.012782267294824123,-0.012226150371134281,-0.011670033447444439,-0.011113916523754597,-0.010557799600064754,-0.010001683607697487,-0.009445566684007645,-0.008889449760317802,-0.00833333283662796,-0.007777215912938118,-0.007221098989248276,-0.0066649820655584335,-0.006108865141868591,-0.005552749149501324,-0.0049966322258114815,-0.004440515302121639,-0.0038843986112624407,-0.0033282816875725985,-0.0027721647638827562,-0.0022160480730235577,-0.0016599311493337154,-0.0011038142256438732,-0.0005476973601616919,8.419505320489407e-06,0.0005645363708026707,0.001120653236284852,0.0016767701599746943,0.002232886850833893,0.002789003774523735,0.0033451206982135773,0.0039012376219034195,0.004457354545593262,0.005013471469283104,0.005569588392972946,0.006125704851001501,0.006681821774691343,0.0072379386983811855,0.007794055622071028,0.008350172080099583,0.008906289003789425,0.009462405927479267,0.01001852285116911,0.010574639774858952,0.011130756698548794,0.011686873622238636,0.012242990545928478],"_type":"histogram"},"val_loss":0.002352239331230521,"val_mse":0.002352239331230521,"epoch":100,"_runtime":14858.101589,"train_loss":0.0023730210959911346,"test_r2":0.99733966588974,"train_r2":0.9972100853919983,"gradients/fc_layer.bias":{"values":[1,0,0,1,0,3,3,2,4,2,3,2,1,4,4,4,8,7,3,7,6,7,7,6,8,2,6,10,5,9,9,7,6,5,8,7,8,8,7,6,6,3,9,13,16,13,8,7,13,24,25,177,45,22,14,8,5,8,3,3,2,3,1,1],"bins":[-0.00034908304223790765,-0.000342314102454111,-0.00033554519177414477,-0.0003287762519903481,-0.0003220073413103819,-0.0003152384015265852,-0.00030846946174278855,-0.00030170055106282234,-0.0002949316112790257,-0.000288162671495229,-0.0002813937608152628,-0.0002746248210314661,-0.00026785588124766946,-0.00026108697056770325,-0.0002543180307839066,-0.00024754912010394037,-0.0002407801803201437,-0.00023401125508826226,-0.00022724232985638082,-0.00022047339007258415,-0.0002137044648407027,-0.00020693553960882127,-0.0002001665998250246,-0.00019339767459314317,-0.00018662874936126173,-0.00017985982412938029,-0.00017309089889749885,-0.00016632195911370218,-0.00015955303388182074,-0.0001527841086499393,-0.00014601516886614263,-0.0001392462436342612,-0.00013247731840237975,-0.0001257083931704983,-0.00011893946793861687,-0.00011217054270673543,-0.00010540161019889638,-9.863267769105732e-05,-9.186375245917588e-05,-8.509482722729445e-05,-7.832589471945539e-05,-7.155696221161634e-05,-6.47880369797349e-05,-5.801910810987465e-05,-5.1250179240014404e-05,-4.448125037015416e-05,-3.771232150029391e-05,-3.0943392630433664e-05,-2.4174463760573417e-05,-1.740553489071317e-05,-1.0636606020852923e-05,-3.867677150992677e-06,2.90125171886757e-06,9.670180588727817e-06,1.6439109458588064e-05,2.320803832844831e-05,2.9976967198308557e-05,3.6745896068168804e-05,4.351482493802905e-05,5.02837538078893e-05,5.7052682677749544e-05,6.38216151855886e-05,7.059054041747004e-05,7.735946564935148e-05,8.412839815719053e-05],"_type":"histogram"},"gradients/conv_layers.8.weight":{"_type":"histogram","values":[5,6,7,8,11,9,9,6,4,4,2,1,5,10,9,6,4,2,3,8,8,7,7,2,2,3,7,26,22,11,2,0,3,19,43,5,4,5,18,39,8,12,18,6,0,0,0,0,0,0,0,0,0,6,22,8,0,0,0,0,30,20,32,62],"bins":[-0.0033095856197178364,-0.003261892357841134,-0.003214198863133788,-0.003166505601257086,-0.0031188123393803835,-0.003071119077503681,-0.0030234255827963352,-0.002975732320919633,-0.0029280390590429306,-0.0028803455643355846,-0.0028326523024588823,-0.00278495904058218,-0.002737265545874834,-0.0026895722839981318,-0.0026418790221214294,-0.002594185760244727,-0.002546492265537381,-0.002498799003660679,-0.0024511057417839766,-0.0024034122470766306,-0.0023557189851999283,-0.002308025723323226,-0.00226033222861588,-0.0022126389667391777,-0.0021649457048624754,-0.002117252442985773,-0.002069558948278427,-0.002021865686401725,-0.0019741724245250225,-0.0019264790462329984,-0.0018787856679409742,-0.001831092406064272,-0.0017833990277722478,-0.0017357056494802237,-0.0016880123876035213,-0.0016403190093114972,-0.001592625747434795,-0.0015449323691427708,-0.0014972389908507466,-0.0014495457289740443,-0.0014018523506820202,-0.0013541590888053179,-0.0013064657105132937,-0.0012587723322212696,-0.0012110790703445673,-0.0011633856920525432,-0.0011156924301758409,-0.0010679990518838167,-0.0010203057900071144,-0.0009726124117150903,-0.000924919091630727,-0.0008772257133387029,-0.0008295323932543397,-0.0007818390731699765,-0.0007341457530856133,-0.00068645243300125,-0.0006387591129168868,-0.0005910657346248627,-0.0005433724145404994,-0.0004956790944561362,-0.000447985774371773,-0.0004002924251835793,-0.0003525991050992161,-0.0003049057559110224,-0.0002572124358266592]},"test_md":2.9824612140655518,"trainer/global_step":173400,"test_mse":0.0023076750803738832,"gradients/conv_layers.4.weight":{"bins":[-0.0032021452207118273,-0.003113209968432784,-0.003024274716153741,-0.0029353394638746977,-0.0028464042115956545,-0.0027574689593166113,-0.002668533707037568,-0.002579598454758525,-0.0024906632024794817,-0.0024017279502004385,-0.0023127926979213953,-0.002223857445642352,-0.002134922193363309,-0.0020459869410842657,-0.0019570516888052225,-0.0018681165529415011,-0.001779181300662458,-0.0016902460483834147,-0.0016013107961043715,-0.0015123755438253284,-0.0014234402915462852,-0.001334505039267242,-0.0012455697869881988,-0.0011566345347091556,-0.0010676993988454342,-0.000978764146566391,-0.0008898288360796869,-0.0008008935838006437,-0.0007119583897292614,-0.0006230231374502182,-0.000534087885171175,-0.0004451526328921318,-0.0003562173806130886,-0.0002672821283340454,-0.00017834689060691744,-8.941164560383186e-05,-4.76400600746274e-07,8.845884440233931e-05,0.0001773940894054249,0.00026632932713255286,0.00035526457941159606,0.00044419983169063926,0.0005331350839696825,0.0006220703362487257,0.0007110055303201079,0.0007999407825991511,0.0008888760348781943,0.0009778112871572375,0.0010667465394362807,0.001155681791715324,0.0012446170439943671,0.0013335522962734103,0.0014224875485524535,0.0015114228008314967,0.00160035805311054,0.0016892933053895831,0.0017782284412533045,0.0018671636935323477,0.001956098945811391,0.002045034198090434,0.0021339694503694773,0.0022229047026485205,0.0023118399549275637,0.002400775207206607,0.00248971045948565],"_type":"histogram","values":[7,5,3,1,0,0,0,0,0,0,0,0,0,0,0,9,10,11,2,17,21,28,50,12,0,24,67,44,114,173,262,413,531,1066,2921,12297,12164,1123,510,319,164,130,68,39,26,25,20,28,11,12,14,4,2,3,1,2,1,0,2,2,3,1,3,3]},"gradients/conv_layers.8.bias":{"values":[1],"bins":[-0.012423507869243622,-0.012423507869243622],"_type":"histogram"},"train_mse":0.0023730210959911346,"test_loss":0.0023076750803738832,"gradients/conv_layers.2.weight":{"_type":"histogram","values":[1,0,2,3,2,2,1,4,4,2,7,3,6,10,7,15,15,20,29,33,31,43,53,49,91,96,99,143,192,198,248,288,343,369,417,516,596,858,1385,2197,3462,5620,6506,3676,1896,1079,575,436,299,233,176,119,72,66,64,36,28,19,10,8,7,0,2,1],"bins":[-0.001999572617933154,-0.0019527202239260077,-0.0019058677135035396,-0.0018590153194963932,-0.0018121629254892468,-0.0017653104150667787,-0.0017184580210596323,-0.001671605627052486,-0.0016247532330453396,-0.0015779007226228714,-0.001531048328615725,-0.0014841959346085787,-0.0014373434241861105,-0.0013904910301789641,-0.0013436386361718178,-0.0012967861257493496,-0.0012499337317422032,-0.0012030813377350569,-0.0011562288273125887,-0.0011093764333054423,-0.001062524039298296,-0.0010156715288758278,-0.0009688191348686814,-0.0009219667408615351,-0.0008751142886467278,-0.0008282618364319205,-0.0007814094424247742,-0.0007345569902099669,-0.0006877045379951596,-0.0006408521439880133,-0.000593999691773206,-0.0005471472977660596,-0.0005002948455512524,-0.00045344242244027555,-0.00040658999932929873,-0.00035973754711449146,-0.00031288512400351465,-0.00026603270089253783,-0.0002191802632296458,-0.00017232782556675375,-0.00012547540245577693,-7.86229720688425e-05,-3.177054168190807e-05,1.5081888705026358e-05,6.193431909196079e-05,0.00010878674947889522,0.00015563917986582965,0.0002024916175287217,0.0002493440406396985,0.0002961964637506753,0.00034304888686165214,0.0003899013390764594,0.0004367537621874362,0.00048360618529841304,0.0005304586375132203,0.0005773110315203667,0.0006241634837351739,0.0006710159359499812,0.0007178683299571276,0.0007647207821719348,0.0008115732343867421,0.0008584256283938885,0.0009052780806086957,0.0009521304746158421,0.0009989829268306494]},"val_md":3.0823559761047363}