{"gradients/graph_1conv_layers.0.weight":{"bins":[-0.008015868254005909,-0.007768300361931324,-0.007520732004195452,-0.007273164112120867,-0.0070255957543849945,-0.0067780278623104095,-0.006530459970235825,-0.006282891612499952,-0.006035323720425367,-0.005787755828350782,-0.00554018747061491,-0.005292619578540325,-0.00504505168646574,-0.004797483328729868,-0.004549915436655283,-0.004302347078919411,-0.004054779186844826,-0.003807211061939597,-0.0035596429370343685,-0.0033120750449597836,-0.003064506920054555,-0.0028169387951493263,-0.0025693709030747414,-0.0023218027781695127,-0.002074234653264284,-0.0018266665283590555,-0.0015790985198691487,-0.001331530511379242,-0.0010839623864740133,-0.0008363943197764456,-0.0005888262530788779,-0.0003412581863813102,-9.369105100631714e-05,0.00015387701569125056,0.00040144508238881826,0.000649013149086386,0.0008965812157839537,0.0011441493406891823,0.001391717349179089,0.0016392853576689959,0.0018868534825742245,0.002134421607479453,0.0023819897323846817,0.0026295576244592667,0.0028771257493644953,0.003124693874269724,0.003372261766344309,0.0036198298912495375,0.003867398016154766,0.004114965908229351,0.004362534265965223,0.004610102158039808,0.0048576705157756805,0.0051052384078502655,0.0053528062999248505,0.005600374657660723,0.005847942549735308,0.006095510441809893,0.006343078799545765,0.00659064669162035,0.006838214583694935,0.007085782941430807,0.007333350833505392,0.007580919191241264,0.00782848708331585],"_type":"histogram","values":[2,1,1,0,2,3,2,3,2,5,4,9,7,10,12,9,11,20,14,17,11,20,16,20,19,21,19,19,20,20,23,18,18,15,11,8,8,9,9,3,10,5,9,3,8,2,2,4,2,11,1,2,0,2,1,0,3,0,0,4,1,0,0,1]},"gradients/graph_1conv_layers.2.weight":{"_type":"histogram","values":[1,1,0,2,0,1,0,0,1,7,2,11,16,24,21,44,81,109,157,226,385,480,775,1177,2529,5073,3912,3272,3198,2631,2019,1604,1275,1020,770,588,379,246,185,143,113,81,46,32,34,25,14,3,11,5,6,3,6,3,4,2,0,0,1,3,3,3,2,3],"bins":[-0.0006839724956080317,-0.0006568680983036757,-0.0006297636427916586,-0.0006026591872796416,-0.0005755547899752855,-0.0005484503926709294,-0.0005213459371589124,-0.0004942414816468954,-0.0004671370843425393,-0.00044003265793435276,-0.0004129282315261662,-0.00038582380511797965,-0.0003587193787097931,-0.00033161495230160654,-0.00030451052589342,-0.0002774060994852334,-0.00025030167307704687,-0.00022319724666886032,-0.00019609282026067376,-0.0001689883938524872,-0.00014188396744430065,-0.0001147795410361141,-8.767511462792754e-05,-6.057068821974099e-05,-3.346626181155443e-05,-6.361835403367877e-06,2.0742591004818678e-05,4.784701741300523e-05,7.495144382119179e-05,0.00010205587022937834,0.0001291602966375649,0.00015626472304575145,0.000183369149453938,0.00021047357586212456,0.00023757800227031112,0.00026468242867849767,0.0002917868550866842,0.0003188912814948708,0.00034599570790305734,0.0003731001343112439,0.00040020456071943045,0.000427308987127617,0.00045441341353580356,0.0004815178399439901,0.0005086222663521767,0.0005357266636565328,0.0005628311191685498,0.0005899355746805668,0.0006170399719849229,0.000644144369289279,0.000671248824801296,0.000698353280313313,0.0007254576776176691,0.0007525620749220252,0.0007796665304340422,0.0008067709859460592,0.0008338753832504153,0.0008609797805547714,0.0008880842360667884,0.0009151886915788054,0.0009422930888831615,0.0009693974861875176,0.0009965018834918737,0.0010236063972115517,0.0010507107945159078]},"train_loss":0.008336897939443588,"gradients/graph_1fc_layer.weight":{"values":[4,12,32,37,51,67,90,96,107,109,151,159,196,220,231,281,357,370,438,487,518,615,821,1533,2464,3975,28740,4897,2199,1819,1431,1032,726,614,638,462,355,273,168,123,67,51,25,29,48,56,46,23,22,17,21,18,27,31,32,20,11,14,2,3,14,9,5,11],"bins":[-0.002010294469073415,-0.0019343314925208688,-0.0018583685159683228,-0.001782405423000455,-0.0017064424464479089,-0.0016304794698953629,-0.001554516376927495,-0.001478553400374949,-0.001402590423822403,-0.001326627447269857,-0.001250664470717311,-0.001174701377749443,-0.001098738401196897,-0.001022775424644351,-0.0009468123898841441,-0.0008708493551239371,-0.0007948863785713911,-0.0007189234020188451,-0.0006429603672586381,-0.0005669973324984312,-0.0004910343559458852,-0.0004150713502895087,-0.0003391083446331322,-0.00026314533897675574,-0.00018718233332037926,-0.00011121932766400278,-3.5256322007626295e-05,4.0706683648750186e-05,0.00011666968930512667,0.00019263269496150315,0.00026859570061787963,0.0003445587062742561,0.0004205217119306326,0.0004964846884831786,0.0005724477232433856,0.0006484107580035925,0.0007243737345561385,0.0008003367111086845,0.0008762997458688915,0.0009522627806290984,0.0010282257571816444,0.0011041887337341905,0.0011801517102867365,0.0012561148032546043,0.0013320777798071504,0.0014080407563596964,0.0014840038493275642,0.0015599668258801103,0.0016359298024326563,0.0017118927789852023,0.0017878557555377483,0.0018638188485056162,0.0019397818250581622,0.0020157448016107082,0.002091707894578576,0.0021676707547158003,0.002243633847683668,0.002319596940651536,0.00239555980078876,0.002471522893756628,0.0025474857538938522,0.00262344884686172,0.002699411939829588,0.002775374799966812,0.00285133789293468],"_type":"histogram"},"val_mse":0.007969057187438011,"_wandb":{"runtime":1214},"gradients/graph_1conv_layers.8.bias":{"_type":"histogram","values":[1],"bins":[0.006340613588690758,0.006340613588690758]},"train_md":5.694875717163086,"val_r2":0.9913034439086914,"gradients/graph_1conv_layers.8.weight":{"bins":[-8.313044963870198e-05,1.1972224456258118e-06,8.55248945299536e-05,0.000169852573890239,0.00025418022414669394,0.00033850790350697935,0.00042283558286726475,0.0005071632331237197,0.0005914909415878356,0.0006758185918442905,0.0007601463003084064,0.0008444739505648613,0.0009288016008213162,0.0010131292510777712,0.001097457017749548,0.001181784668006003,0.0012661123182624578,0.0013504399685189128,0.0014347676187753677,0.0015190952690318227,0.0016034230357035995,0.0016877506859600544,0.0017720783362165093,0.0018564059864729643,0.0019407336367294192,0.002025061286985874,0.002109389053657651,0.002193716587498784,0.002278044354170561,0.0023623721208423376,0.0024466996546834707,0.0025310274213552475,0.0026153551880270243,0.002699682954698801,0.002784010488539934,0.002868338255211711,0.002952665789052844,0.003036993555724621,0.0031213213223963976,0.0032056488562375307,0.0032899766229093075,0.0033743041567504406,0.0034586319234222174,0.003542959690093994,0.0036272872239351273,0.003711614990606904,0.003795942524448037,0.003880270291119814,0.003964597824960947,0.0040489258244633675,0.004133253358304501,0.004217580892145634,0.004301908425986767,0.004386236425489187,0.00447056395933032,0.0045548914931714535,0.004639219492673874,0.004723547026515007,0.00480787456035614,0.0048922025598585606,0.004976530093699694,0.005060857627540827,0.00514518516138196,0.00522951316088438,0.0053138406947255135],"_type":"histogram","values":[116,84,56,15,11,5,1,0,0,0,0,0,0,0,0,0,0,0,0,0,0,0,0,0,0,0,0,4,5,9,16,13,8,7,17,15,9,5,2,1,2,5,5,6,7,13,3,6,10,9,15,15,21,16,9,0,2,1,3,4,4,6,7,8]},"val_mae":0.04091088846325874,"epoch":7,"val_loss":0.007969057187438011,"gradients/graph_1fc_layer.bias":{"_type":"histogram","values":[2,1,1,0,0,0,0,0,1,2,0,2,2,2,0,0,0,1,1,1,0,1,1,4,7,5,3,4,8,3,6,7,7,7,6,6,9,8,3,14,10,13,7,21,11,18,22,30,31,34,51,101,125,7,8,2,3,0,3,1,1,0,0,1],"bins":[-0.0004201370174996555,-0.00041207895264960825,-0.00040402085869573057,-0.00039596279384568334,-0.0003879047289956361,-0.0003798466641455889,-0.0003717885701917112,-0.00036373050534166396,-0.0003556724404916167,-0.00034761434653773904,-0.0003395562816876918,-0.0003314982168376446,-0.00032344015198759735,-0.00031538205803371966,-0.00030732399318367243,-0.0002992659283336252,-0.00029120786348357797,-0.0002831497695297003,-0.00027509170467965305,-0.0002670336398296058,-0.00025897554587572813,-0.0002509174810256809,-0.00024285941617563367,-0.0002348013367736712,-0.00022674325737170875,-0.00021868519252166152,-0.00021062711311969906,-0.00020256904826965183,-0.00019451096886768937,-0.00018645290401764214,-0.00017839482461567968,-0.00017033675976563245,-0.00016227868036367,-0.00015422060096170753,-0.0001461625361116603,-0.00013810445670969784,-0.0001300463918596506,-0.00012198831245768815,-0.00011393024033168331,-0.00010587216820567846,-9.781409607967362e-05,-8.975602395366877e-05,-8.169795182766393e-05,-7.363987970165908e-05,-6.558180029969662e-05,-5.7523731811670586e-05,-4.9465656047686934e-05,-4.140758392168209e-05,-3.3349511795677245e-05,-2.52914396696724e-05,-1.723336572467815e-05,-9.175292689178605e-06,-1.117219653679058e-06,6.940853381820489e-06,1.4998926417320035e-05,2.3057000362314284e-05,3.111507248831913e-05,3.9173144614323974e-05,4.723121674032882e-05,5.528929250431247e-05,6.334736826829612e-05,7.140544039430097e-05,7.946351252030581e-05,8.752158464631066e-05,9.55796567723155e-05]},"trainer/global_step":13871,"gradients/graph_1conv_layers.6.weight":{"_type":"histogram","values":[3,7,6,11,13,15,20,22,26,40,43,55,50,34,37,30,17,14,24,17,18,16,6,3,0,5,1,0,13,34,29,42,32,66,165,419,991,4883,1846,672,351,142,143,152,168,200,253,230,222,173,154,104,126,147,79,121,95,67,55,40,17,11,13,12],"bins":[-0.0016534514725208282,-0.0016097421757876873,-0.0015660328790545464,-0.0015223236987367272,-0.0014786144020035863,-0.0014349051052704453,-0.0013911958085373044,-0.0013474866282194853,-0.0013037773314863443,-0.0012600680347532034,-0.0012163587380200624,-0.0011726494412869215,-0.0011289402609691024,-0.0010852309642359614,-0.0010415216675028205,-0.0009978123707696795,-0.0009541031322441995,-0.0009103938355110586,-0.0008666845969855785,-0.0008229753002524376,-0.0007792660617269576,-0.0007355567649938166,-0.0006918475264683366,-0.0006481382297351956,-0.0006044289330020547,-0.0005607196944765747,-0.0005170103977434337,-0.0004733011592179537,-0.00042959186248481274,-0.00038588259485550225,-0.00034217332722619176,-0.00029846405959688127,-0.0002547547919675708,-0.0002110455243382603,-0.0001673362567089498,-0.0001236269745277241,-7.99177068984136e-05,-3.62084356311243e-05,7.500835636164993e-06,5.121010690345429e-05,9.491937817074358e-05,0.00013862864580005407,0.00018233791342936456,0.00022604719561059028,0.000269756477791816,0.0003134657454211265,0.000357175013050437,0.00040088428067974746,0.00044459354830905795,0.0004883028450421989,0.0005320120835676789,0.0005757213803008199,0.0006194306188262999,0.0006631399155594409,0.0007068491540849209,0.0007505584508180618,0.0007942677475512028,0.0008379769860766828,0.0008816862828098238,0.0009253955213353038,0.0009691048180684447,0.0010128141148015857,0.0010565232951194048,0.0011002325918525457,0.0011439418885856867]},"gradients/graph_1conv_layers.0.bias":{"values":[2,0,0,0,2,0,1,1,2,0,0,0,0,0,0,1,0,0,0,0,0,2,0,0,0,0,2,0,1,1,1,0,0,0,1,2,0,3,3,0,0,1,0,0,0,1,0,0,0,0,0,0,1,0,0,1,1,0,0,0,1,0,0,1],"bins":[-0.005343989934772253,-0.005096632055938244,-0.004849273711442947,-0.004601915832608938,-0.004354557953774929,-0.004107199609279633,-0.0038598417304456234,-0.0036124836187809706,-0.0033651255071163177,-0.003117767395451665,-0.002870409283787012,-0.002623051404953003,-0.00237569329328835,-0.0021283351816236973,-0.0018809771863743663,-0.0016336191911250353,-0.0013862610794603825,-0.0011389029677957296,-0.0008915449725463986,-0.0006441869190894067,-0.0003968288656324148,-0.0001494708121754229,9.7887241281569e-05,0.0003452452947385609,0.0005926033481955528,0.0008399614016525447,0.0010873194551095366,0.0013346774503588676,0.0015820355620235205,0.0018293936736881733,0.0020767515525221825,0.0023241096641868353,0.0025714682415127754,0.0028188263531774282,0.003066184464842081,0.0033135423436760902,0.003560900455340743,0.003808258567005396,0.004055616445839405,0.0043029747903347015,0.004550332669168711,0.00479769054800272,0.005045048892498016,0.0052924067713320255,0.005539764650166035,0.005787122994661331,0.00603448087349534,0.006281839217990637,0.006529197096824646,0.006776554975658655,0.007023913320153952,0.007271271198987961,0.007518629543483257,0.0077659874223172665,0.008013345301151276,0.008260703645646572,0.008508061990141869,0.00875541940331459,0.009002777747809887,0.009250136092305183,0.009497493505477905,0.009744851849973202,0.009992210194468498,0.01023956760764122,0.010486925952136517],"_type":"histogram"},"_timestamp":1.7346185820429702e+09,"gradients/graph_1conv_layers.6.bias":{"values":[1,0,0,0,0,0,1,0,0,0,0,0,0,1,0,2,0,0,0,0,0,0,0,0,0,0,0,0,0,0,0,1,0,1,0,1,0,0,0,0,0,0,0,1,0,1,0,0,0,3,1,0,0,0,0,0,0,0,0,1,0,0,0,1],"bins":[-0.005747076589614153,-0.005576035473495722,-0.005404994357377291,-0.005233953706920147,-0.005062912590801716,-0.004891871474683285,-0.004720830358564854,-0.00454978970810771,-0.004378748591989279,-0.004207707475870848,-0.004036666359752417,-0.003865625476464629,-0.003694584360346198,-0.0035235434770584106,-0.0033525023609399796,-0.003181461477652192,-0.003010420361533761,-0.00283937924541533,-0.0026683383621275425,-0.0024972972460091114,-0.002326256362721324,-0.002155215246602893,-0.0019841743633151054,-0.0018131332471966743,-0.001642092247493565,-0.0014710512477904558,-0.0013000102480873466,-0.0011289692483842373,-0.0009579281904734671,-0.0007868871907703578,-0.0006158461328595877,-0.0004448051331564784,-0.00027376413345336914,-0.00010272311919834465,6.831789505667984e-05,0.00023935890931170434,0.00041039992356672883,0.0005814409232698381,0.0007524819811806083,0.0009235229808837175,0.0010945639805868268,0.001265604980289936,0.0014366459799930453,0.0016076869796961546,0.0017787280958145857,0.001949769095517695,0.002120810095220804,0.0022918509785085917,0.0024628920946270227,0.002633933210745454,0.0028049740940332413,0.0029760152101516724,0.00314705609343946,0.003318097209557891,0.0034891380928456783,0.0036601792089641094,0.0038312203250825405,0.004002261441200972,0.004173302091658115,0.0043443432077765465,0.004515384323894978,0.004686425440013409,0.0048574660904705524,0.0050285072065889835,0.005199548322707415],"_type":"histogram"},"_step":16,"val_md":5.646265506744385,"train_mse":0.008336898870766163,"train_r2":0.9905216097831726,"_runtime":1214.714094,"train_mae":0.0426461435854435,"gradients/graph_1conv_layers.2.bias":{"_type":"histogram","values":[1,0,0,0,0,0,0,0,0,0,1,0,1,0,0,1,2,0,1,0,1,0,2,2,0,2,1,3,1,1,1,1,4,1,6,4,0,1,4,2,1,2,2,0,2,0,1,0,2,0,1,1,2,1,1,2,0,0,1,0,0,0,0,1],"bins":[-0.006600433960556984,-0.006331688724458218,-0.006062943488359451,-0.005794198252260685,-0.005525453016161919,-0.005256707314401865,-0.004987962078303099,-0.004719216842204332,-0.004450471606105566,-0.0041817263700068,-0.003912981133908033,-0.0036442356649786234,-0.003375490428879857,-0.0031067451927810907,-0.0028379997238516808,-0.0025692544877529144,-0.002300509251654148,-0.0020317640155553818,-0.0017630186630412936,-0.0014942733105272055,-0.0012255280744284391,-0.0009567827801220119,-0.0006880374858155847,-0.0004192921915091574,-0.00015054689720273018,0.00011819839710369706,0.0003869436914101243,0.0006556889857165515,0.0009244342800229788,0.0011931795161217451,0.0014619248686358333,0.0017306702211499214,0.001999414525926113,0.0022681597620248795,0.0025369049981236458,0.0028056504670530558,0.003074395703151822,0.0033431409392505884,0.0036118864081799984,0.0038806316442787647,0.004149376880377531,0.004418122116476297,0.004686867352575064,0.00495561258867383,0.005224358290433884,0.00549310352653265,0.005761848762631416,0.006030593998730183,0.006299339234828949,0.006568084470927715,0.006836829707026482,0.007105574943125248,0.007374320179224014,0.007643065880984068,0.007911810651421547,0.008180555887520313,0.00844930112361908,0.00871804729104042,0.008986792527139187,0.009255537763237953,0.00952428299933672,0.009793028235435486,0.010061773471534252,0.010330518707633018,0.010599263943731785]},"gradients/graph_1conv_layers.4.bias":{"_type":"histogram","values":[1,0,0,0,0,0,0,0,0,0,0,0,0,0,0,0,0,0,0,0,0,1,0,0,1,1,0,0,2,0,0,1,0,0,0,2,0,1,1,0,0,0,3,1,1,2,0,1,0,0,0,0,2,2,1,0,2,0,2,1,2,0,0,1],"bins":[-0.007562810089439154,-0.0073926327750086784,-0.007222455460578203,-0.007052278146147728,-0.006882100831717253,-0.0067119235172867775,-0.006541746202856302,-0.006371568888425827,-0.006201391573995352,-0.0060312142595648766,-0.005861036945134401,-0.005690859630703926,-0.005520682316273451,-0.005350505001842976,-0.0051803276874125,-0.005010150372982025,-0.00483997305855155,-0.004669795744121075,-0.0044996184296905994,-0.004329441115260124,-0.004159263800829649,-0.003989086486399174,-0.0038189091719686985,-0.0036487318575382233,-0.003478554543107748,-0.003308377228677273,-0.0031381999142467976,-0.0029680225998163223,-0.002797845285385847,-0.002627667970955372,-0.0024574906565248966,-0.0022873133420944214,-0.002117136027663946,-0.001946958713233471,-0.0017767813988029957,-0.0016066040843725204,-0.0014364267699420452,-0.00126624945551157,-0.0010960721410810947,-0.0009258948266506195,-0.0007557175122201443,-0.000585540197789669,-0.0004153628833591938,-0.00024518556892871857,-7.500825449824333e-05,9.51690599322319e-05,0.00026534637436270714,0.0004355236887931824,0.0006057010032236576,0.0007758783176541328,0.0009460556320846081,0.0011162329465150833,0.0012864102609455585,0.0014565875753760338,0.001626764889806509,0.0017969422042369843,0.0019671195186674595,0.0021372968330979347,0.00230747414752841,0.002477651461958885,0.0026478287763893604,0.0028180060908198357,0.002988183405250311,0.003158360719680786,0.0033285380341112614]},"gradients/graph_1conv_layers.4.weight":{"_type":"histogram","values":[2,3,5,4,2,0,0,0,0,5,6,8,22,41,62,71,77,83,73,113,143,141,151,203,237,291,321,419,422,508,454,518,851,1042,1162,1438,2038,3150,4336,2439,1840,1080,950,1089,888,720,682,625,668,634,638,524,433,342,262,196,116,96,63,37,23,14,2,5],"bins":[-0.0007065729005262256,-0.0006880220025777817,-0.0006694711628369987,-0.0006509202648885548,-0.0006323694251477718,-0.0006138185271993279,-0.000595267687458545,-0.0005767167895101011,-0.0005581659497693181,-0.0005396150518208742,-0.0005210642120800912,-0.0005025133141316473,-0.0004839624452870339,-0.0004654115764424205,-0.00044686070759780705,-0.0004283098387531936,-0.0004097589699085802,-0.00039120810106396675,-0.0003726572322193533,-0.0003541063633747399,-0.00033555549453012645,-0.000317004625685513,-0.0002984537568408996,-0.00027990288799628615,-0.00026135199004784226,-0.00024280113575514406,-0.00022425026691053063,-0.0002056993980659172,-0.00018714851466938853,-0.0001685976458247751,-0.00015004677698016167,-0.00013149590813554823,-0.0001129450392909348,-9.439417044632137e-05,-7.584330160170794e-05,-5.729242548113689e-05,-3.8741556636523455e-05,-2.019068597292062e-05,-1.6398153093177825e-06,1.6911055354285054e-05,3.546192601788789e-05,5.401279486250132e-05,7.256366370711476e-05,9.11145398276858e-05,0.00010966540867229924,0.00012821628479287028,0.00014676715363748372,0.00016531802248209715,0.00018386889132671058,0.00020241976017132401,0.00022097062901593745,0.00023952149786055088,0.0002580723667051643,0.00027662323554977775,0.0002951741043943912,0.0003137249732390046,0.0003322758711874485,0.00035082674003206193,0.00036937760887667537,0.0003879284777212888,0.00040647934656590223,0.00042503021541051567,0.0004435810842551291,0.00046213195309974253,0.00048068282194435596]}}